# LAMMPS SNAP coefficients for GaN

1 31
Ar 1 1
-4.212657413969986830e-01
4.485839284110033063e-05
-1.941561982592728117e-04
1.241496474761637691e-03
7.226277088515912399e-04
4.963522605123554289e-03
2.763378615074642361e-07
1.438016009181942176e-03
5.270175795312428317e-04
6.185335937868964920e-04
-1.167715202557094683e-04
2.234250219622599745e-03
4.398303892295735672e-03
1.411557730023205214e-03
3.447593862731321160e-04
-1.533343718574552888e-03
-1.375909593967692768e-03
1.155014131750464485e-03
3.588093328949921654e-03
8.112724502781943226e-04
2.643624927241655870e-04
1.279580498094956770e-04
-2.823003327459831422e-04
-1.867385150728203191e-04
1.521869771720032408e-03
1.101807339282319474e-03
4.271288659056310323e-04
-2.181155516611774339e-05
-8.844478703707542202e-07
5.044242903298551623e-04
3.570854922148822567e-06
